encog,BasicPNN,java,3.4.0,1,1639045089953
[PNN]
[PNN:PARAMS]
[PNN:NETWORK]
error=0.0909090909
inputCount=12
kernel=gaussian
outputCount=2
outputMode=regression
sigma=0.0001,0.0001,0.0001,0.0001,0.0001,0.0001,0.0001,0.0001,0.0001,0.0001,0.0001,0.0001
[PNN:SAMPLES]
1,-1,-1,1,-1,1,-1,-0.850931677,1,-1,-0.8660254038,-0.5,-1,1
-1,1,-1,1,-1,1,-1,-0.6734693878,1,-1,0,1,1,-1
-1,1,-1,1,1,-1,-0.5,0.306122449,1,-1,-0.8660254038,-0.5,1,-1
1,-1,1,-1,-1,1,1,-0.3766233766,1,-1,0,1,1,-1
-1,1,-1,1,-1,1,-0.6,-0.5966386555,1,-1,-0.8660254038,-0.5,-1,1
1,-1,-1,1,-1,1,-1,-0.7142857143,1,-1,-0.8660254038,-0.5,1,-1
-1,1,-1,1,-1,1,-1,-0.8195488722,1,-1,-0.8660254038,-0.5,-1,1
1,-1,1,-1,-1,1,1,-0.4285714286,1,-1,-0.8660254038,-0.5,-1,1
-1,1,-1,1,-1,1,-0.6,-0.7983193277,1,-1,-0.8660254038,-0.5,-1,1
1,-1,-1,1,1,-1,-1,0.3714285714,1,-1,-0.8660254038,-0.5,-1,1
1,-1,1,-1,-1,1,1,0.1428571429,1,-1,-0.8660254038,-0.5,1,-1
1,-1,1,-1,-1,1,1,-0.4285714286,1,-1,-0.8660254038,-0.5,-1,1
1,-1,1,-1,-1,1,1,-0.2906403941,1,-1,-0.8660254038,-0.5,1,-1
1,-1,1,-1,-1,1,0,-0.619047619,1,-1,0,1,1,-1
1,-1,1,-1,-1,1,1,-0.2906403941,1,-1,-0.8660254038,-0.5,1,-1
1,-1,-1,1,-1,1,-1,-1,1,-1,0,1,1,-1
1,-1,1,-1,-1,1,0,-0.5966386555,1,-1,0,1,1,-1
1,-1,1,-1,-1,1,1,-0.6883116883,1,-1,0,1,1,-1
1,-1,-1,1,-1,1,-1,-0.8441558442,1,-1,-0.8660254038,-0.5,-1,1
1,-1,1,-1,-1,1,1,-0.7142857143,1,-1,-0.8660254038,-0.5,-1,1
1,-1,-1,1,-1,1,-1,-0.7983193277,1,-1,0.8660254038,-0.5,-1,1
1,-1,-1,1,-1,1,-1,-0.5714285714,1,-1,-0.8660254038,-0.5,-1,1
1,-1,1,-1,-1,1,0,-0.5966386555,1,-1,0,1,1,-1
1,-1,-1,1,-1,1,-1,-1,1,-1,-0.8660254038,-0.5,-1,1
1,-1,1,-1,-1,1,1,-0.3766233766,1,-1,0,1,1,-1
1,-1,1,-1,-1,1,1,-0.6571428571,1,-1,0.8660254038,-0.5,-1,1
1,-1,1,-1,-1,1,0,-0.0857142857,-1,1,-0.8660254038,-0.5,1,-1
1,-1,-1,1,-1,1,-1,-0.4088669951,1,-1,-0.8660254038,-0.5,1,-1
-1,1,1,-1,-1,1,0,-0.4586466165,1,-1,-0.8660254038,-0.5,-1,1
-1,1,-1,1,-1,1,-0.6,-0.5966386555,1,-1,-0.8660254038,-0.5,-1,1
1,-1,1,-1,-1,1,1,-0.7142857143,1,-1,-0.8660254038,-0.5,-1,1
1,-1,1,-1,-1,1,1,-0.4285714286,1,-1,-0.8660254038,-0.5,-1,1
1,-1,1,-1,-1,1,1,0.0549450549,-1,1,-0.8660254038,-0.5,1,-1
-1,1,-1,1,-1,1,-1,-1,1,-1,-0.8660254038,-0.5,-1,1
1,-1,1,-1,-1,1,0,-0.7983193277,1,-1,0.8660254038,-0.5,-1,1
1,-1,1,-1,1,-1,1,0.7142857143,1,-1,-0.8660254038,-0.5,-1,1
1,-1,1,-1,-1,1,1,-0.6883116883,1,-1,0,1,1,-1
1,-1,-1,1,-1,1,-1,-1,1,-1,0,1,1,-1
1,-1,1,-1,-1,1,1,-0.4285714286,1,-1,-0.8660254038,-0.5,-1,1
1,-1,-1,1,-1,1,-1,-0.7142857143,1,-1,-0.8660254038,-0.5,1,-1
1,-1,1,-1,1,-1,1,0.7142857143,1,-1,-0.8660254038,-0.5,1,-1
-1,1,-1,1,-1,1,-1,-1,1,-1,-0.8660254038,-0.5,-1,1
1,-1,1,-1,-1,1,0,-0.0857142857,-1,1,-0.8660254038,-0.5,1,-1
1,-1,-1,1,-1,1,-1,-0.645320197,1,-1,-0.8660254038,-0.5,1,-1
-1,1,-1,1,-1,1,-1,-1,1,-1,0,1,1,-1
1,-1,-1,1,-1,1,-1,-0.4285714286,1,-1,-0.8660254038,-0.5,-1,1
1,-1,-1,1,-1,1,-1,-0.4088669951,1,-1,-0.8660254038,-0.5,1,-1
1,-1,1,-1,-1,1,1,-0.6883116883,1,-1,0,1,1,-1
1,-1,-1,1,-1,1,-1,-1,1,-1,0,1,1,-1
-1,1,-1,1,-1,1,-1,-1,1,-1,-0.8660254038,-0.5,-1,1
1,-1,-1,1,-1,1,-1,-0.619047619,1,-1,-0.8660254038,-0.5,-1,1
1,-1,1,-1,-1,1,0,-0.7983193277,1,-1,0.8660254038,-0.5,-1,1
1,-1,-1,1,-1,1,-1,-0.4285714286,-1,1,0.8660254038,-0.5,1,-1
1,-1,-1,1,1,-1,-1,0.3714285714,1,-1,-0.8660254038,-0.5,-1,1
1,-1,1,-1,-1,1,1,-0.6571428571,1,-1,0.8660254038,-0.5,-1,1
1,-1,-1,1,-1,1,-1,-0.619047619,1,-1,-0.8660254038,-0.5,-1,1
1,-1,1,-1,1,-1,1,1,1,-1,-0.8660254038,-0.5,1,-1
-1,1,-1,1,-1,1,-1,-1,1,-1,-0.8660254038,-0.5,-1,1
1,-1,-1,1,-1,1,-1,-0.4285714286,1,-1,-0.8660254038,-0.5,-1,1
1,-1,1,-1,-1,1,1,-0.6883116883,1,-1,0,1,1,-1
-1,1,-1,1,-1,1,-1,-0.7983193277,1,-1,-0.8660254038,-0.5,-1,1
1,-1,-1,1,-1,1,-1,-0.746031746,-1,1,-0.8660254038,-0.5,1,-1
1,-1,-1,1,-1,1,-1,-0.4285714286,-1,1,0.8660254038,-0.5,1,-1
1,-1,-1,1,-1,1,-1,-0.619047619,1,-1,-0.8660254038,-0.5,1,-1
1,-1,-1,1,-1,1,-1,-0.619047619,1,-1,-0.8660254038,-0.5,1,-1
-1,1,-1,1,-1,1,-1,-0.8441558442,-1,1,0,1,1,-1
