encog,BasicNetwork,java,3.4.0,1,1639073343327
[BASIC]
[BASIC:PARAMS]
[BASIC:NETWORK]
beginTraining=0
connectionLimit=0
contextTargetOffset=0,0,0
contextTargetSize=0,0,0
endTraining=2
hasContext=f
inputCount=12
layerCounts=2,19,13
layerFeedCounts=2,18,12
layerContextCount=0,0,0
layerIndex=0,2,21
output=1,-1,-0.6463017104,0.9531609746,0.2505816995,0.9955522315,-0.4833244097,-0.9998253261,0.689854911,0.7820915921,-0.5742774854,0.2188555875,-0.1663679787,-0.8007960394,0.5669031111,0.9192492671,-0.9999999999,0.9928480887,0.5598524569,-0.6367343469,1,0,0,0,0,0,0,0,0,0,0,0,0,1
outputCount=2
weightIndex=0,38,272
weights=81.9648429059,2.1910288493,-20.797148804,3.1157242053,0.9284318457,-47.7086144609,2.8258944904,0.5607054116,-12.3479432807,33.6596768934,2.3272925342,-0.4220405554,11.5095388393,-0.8944218448,-0.0262380639,0.6290274982,19.3990347257,-0.5795066069,0.3617859562,-82.1766530024,-1.8918266551,19.6412906949,-3.2150484075,-0.7285757103,47.8417561835,-2.5614002851,-0.573112164,13.4879163576,-36.1043016192,-2.752761818,0.9728515326,-11.1952811503,-0.8931518279,0.4487673843,0.1078307018,-17.0834995559,-0.0107140668,0.4413084295,-0.2528530516,0.9488500849,0.6582299235,-0.0861287986,-0.4938269043,0.2502708077,-0.2791905625,1.2073105322,0.8793973062,-0.37975343,-0.9143399665,-0.7822082288,-0.7689212015,-0.6785401769,0.4925364781,1.5508088752,-3.3514972129,-2.1846012538,2.1491521093,41.5383364635,156.4666965645,-0.6773937016,0.8183988115,-3.6640576142,-0.3007029533,1.8652438098,-1.1057218328,0.8701215288,-0.1945292079,0.7298191628,0.0529342918,-1.0394835957,-0.0035790523,-2.5383837805,-0.6736824116,-0.866549435,-0.761481441,-0.2487832607,0.2560333877,3.5524048574,-2.5005109818,-7.3463388145,6.2271692618,-0.6643391361,0.5542335828,-17.0156273363,44.8096419567,-0.1180238812,-0.2278684979,-0.3578805363,10.3929285163,3.0531367975,0.8655892952,-0.1033336051,-0.1256370648,0.9454939495,-0.461852127,-0.8548960189,0.6655937923,1.0386207418,0.7161307717,-0.3677167785,-1.0459535126,2.1488324518,-0.5273129389,-1.2504879737,1.3850086224,1.0410952419,-0.895593785,3.0423721087,-4.450499979,1.6257062542,7.3922151658,7.0073139202,-6.9544523915,1.2393424723,-20.1014623727,-4.6728249375,-0.2361480899,0.0857989539,-0.1782259673,0.4000099803,-0.8092778695,1.197389109,-0.7578976707,2.4746569884,-0.0553609361,-0.6280077875,-0.0849086694,0.3524504898,0.8476788678,1.0261713604,-0.5714219734,-0.3090226726,1.7832015604,0.6529523707,-0.4625876585,0.1396756595,-0.2697482592,-0.2432219728,0.0715972534,0.3277657632,0.5594971802,1.050734089,-0.8020810021,0.7222441665,0.4074008843,-0.5074738368,0.0611643342,0.9062457238,-0.1211702445,-2.4974362948,-0.3288537362,-0.7038961383,0.3294328906,-0.5871631744,-0.6538819733,-0.4505037729,-0.772663105,0.292988779,0.4763163312,-0.6390033021,0.3168136365,0.0129168519,0.9028178489,-1.1748299263,-0.0385854935,-0.4863108354,1.0470400463,0.2224538073,-0.7180797047,0.7178219929,-0.9898165661,-0.2555440207,0.631525721,0.6455715533,0.4037127729,-2.1428777683,-0.5240998241,0.5412823097,-0.2136641132,-0.075959259,-0.1679289121,0.6862207681,1.009144041,0.7211167778,-0.276197743,-0.0035536891,-0.4587218231,1.0578343258,-2.4078277234,-0.3016723093,0.7661784349,0.2983178469,-2.0855552277,-1.1008274314,-0.170974845,-0.8500665541,0.3149244644,0.7098736402,-1.1144733282,-0.0879381523,0.1784172286,1.3142857474,-0.7391492722,0.8941813039,0.0578862717,0.736593452,0.6429474724,0.139465077,0.3547288088,0.2385346804,-0.538067127,0.9578199647,0.7058916072,0.0502365131,-0.346624641,-0.3092451403,-1.2857632003,0.7347333124,0.0697095472,1.5841611721,6.816224519,-6.1096011565,1.7089554744,-1.0639862807,7.4344523999,-7.1114198757,-1.6357126499,1.0499620259,-0.4776391214,0.5022094766,1.0631221777,0.3897717177,-12.1720004372,1.2915249657,-0.6138659773,-0.0660597961,-0.1853144752,-1.2421402999,0.1603329732,0.4367270849,-0.6144066072,0.3968705609,-0.6777268735,-0.6921063793,-0.1926874702,2.8149702325,0.6868760086,0.6585368606,-0.1504220299,0.9096763918,0.5643327887,0.3822564809,-0.4164072854,0.5024671837,-0.1057687408,-0.3090299743,0.1157624233,1.8072745703,0.6326182605,-1.0032457428,-0.0895715888,-0.6627387693,1.1302201592,-0.3359332888,-0.7919809909,-0.190123884,1.6895779349,1.0200006012,-1.3331602263,0.2316232471,-1.2032737766,-0.7526619452
biasActivation=0,1,1
[BASIC:ACTIVATION]
"org.encog.engine.network.activation.ActivationTANH"
"org.encog.engine.network.activation.ActivationTANH"
"org.encog.engine.network.activation.ActivationLinear"
